Image,0,1,2,3,4,5,6,7,8,9,10,11,12,13,14,15,16,17,18,19,20,21,22,23,24,25,26,27,28,29,30,31,32,33,34,35,36,37,38,39,40,41,42,43,44,45,46,47,48,49,50,51,52,53,54,55,56,57,58,59,60,61,62,63,64,65,66,67,68,69,70,71,72,73,74,75,76,77,78,79,80,81,82,83,84,85,86,87,88,89,90,91,92,93,94,95,96,97,98,99,100,101,102,103,104,105,106,107,108,109,110,111,112,113,114,115,116,117,118,119,120,121,122,123,124,125,126,127
sample_person.jpg,-1.230231509370756,0.26551434354076314,-0.676983385908641,0.7013790381957897,0.5215771460321088,-1.300218617690738,-0.24743856344279147,-0.13399429555195727,1.198487359365363,-0.1932101669261561,-0.8202567076899474,1.4569498061088753,0.442123841801844,-0.05956405385574745,0.17448054441014746,-0.47274074162826973,-0.26936611914720604,-1.296294608480147,1.2166993378388524,-0.5917245447108571,0.09368964200139136,0.5537030537074832,-0.7079666605215046,0.6020145526894608,-0.5989483347405113,0.28254162662193216,-1.3866899486752673,-0.36329736934770346,1.3042376640194717,-0.10794908326730718,-0.5433401945477965,0.8958313273010695,0.20145324462578773,1.4503549887939189,-2.004471692341825,2.603627055342802,-0.0577420400458465,-0.26187987436458293,-1.6857134841963208,-1.5770693937100753,0.7216192814689258,1.107101090054557,-0.12813441725889776,0.5445278278305478,0.9226976202179331,0.5798181724044728,-0.4834298375218076,0.9769031857373829,1.1931051902278005,-0.8492206874864893,0.3687906782771918,1.699491858956378,-1.275394902544047,0.2690520517685908,-1.3121123391686413,-1.5426079708874687,0.1897254938995818,-2.1083680447822477,0.9909695479974528,-0.44452852005074506,-0.7324831784216498,-0.9968655290650448,0.25497979142394256,0.3611954312717975,0.11341792181715914,0.5407579137038389,-1.341720416608898,-0.5586272304678336,-1.6052750420886284,-0.9021505708272942,-0.895110067957083,0.5231575823448787,0.6832163895146018,0.5764158311477547,-0.12340566057788736,-0.32925255519669333,-2.273022737413527,0.5397579343408524,-1.451700181774763,0.5144348015795486,-0.7904497172186226,-1.266866132628941,-0.20218176326027104,-0.9354833783903457,0.27177524959330973,0.231923375806289,0.3589610867797274,-0.04736817047013255,-1.7969317315457392,0.03654563324766335,0.9396599498799789,0.6467669582890206,0.4203729338427276,-0.9916635295033115,-0.861652869922829,0.509437934763358,-0.9091057677703425,0.7837691520921174,-0.3116720120724822,0.6716081637818846,0.5187647606081309,0.6174734331557666,0.5132976359843893,-0.12462939077105979,-0.9941702694344589,2.179167741997333,2.512275665650085,1.2309639546503135,0.0484013058067282,-2.6404128762714985,0.12558417943587136,2.710378082083349,2.176863562969308,0.6630227179930358,-0.07763244443686261,-0.6546671129538308,1.566323450610376,-0.19200290438690554,0.09383525975057835,0.27860213325653826,-0.7721256133274322,-0.32640766141158356,0.2871651503636671,-0.030682417713029354,0.7777776721679469,-0.5285648262394033,1.0075908958143018,-0.9290376392783631
